

#include "teil/config.h"
#include "MLPCIris.h"
#include "teil/model/neural_network/mlpc.h" 
#include "teil/model/neural_network/neural_utils.h" 


double MLPCIris_layer_0_weights[4][100] = {
    {0.15941777331817944,0.11659943988887948,-0.005460385113029533,-0.032608497511826165,0.2572685798233911,-0.09941639632582529,-0.07106037774607735,-0.056914242071859855,-0.019376061202474194,-0.03979976129642203,0.10138750413921874,-0.06674142553784058,-0.017095110510848353,-0.08888513114898822,-0.10615426271553993,-0.04209798415365249,-5.364305690639016e-05,-0.06168082685760321,0.06247526691410032,0.11219043747433047,0.09264409034762898,0.19057755125635964,0.017495610024975333,0.16723526785152484,2.814354239790697e-05,0.12659261977497446,-0.10962284491214237,0.09714546801142601,0.008271837412906897,-0.07607626839326967,0.17227223909647033,0.18610164158312745,0.14099601981496776,-0.07037442411572964,-0.002190863165288894,-0.06275693819313577,0.0012564714996850799,0.16098047328698548,-0.011847738824663612,0.17371624402717686,0.06452480936017438,0.19100271995812354,0.061805962337497515,-0.07699798375352997,-0.046275274503594005,0.1459151677895206,-0.035479495742028494,0.15430400385446494,-0.0012920042087211437,-0.08917432861788728,-0.10763806631484944,-0.10520271503837088,-0.08098109283781067,0.15456015934623543,0.16594425715517575,0.13468879327528946,0.2569165156985517,-0.11617055790419795,0.14326166969966517,-0.09855332669122278,0.18414839835314772,0.04262933422344754,-0.03851984116568781,0.007826645875222906,0.0005973712093093885,0.19491703061162893,-0.05451050796848161,-0.13411813722535365,-0.05457848450131922,0.10436200467360782,0.15403218854623513,-0.0495374992583479,-0.04793007022106829,0.03417394017242033,0.1967401151173913,0.20563826552766817,-0.057051492422170454,-0.0365979440934864,0.0931580828253411,0.15901828317294592,0.0487012266491029,0.14368105368900985,0.10888029171999852,-0.036164471903128464,0.005047165854115931,0.154243705085977,-0.01781636398448888,-0.024176043541437514,0.09627737612186496,0.15188304239384112,-0.10048542237762616,-0.0978964115866555,0.06668752854062014,-0.07405989783184874,-0.03139165828599122,0.15500532246089063,0.05623742622502727,0.10732432806731482,0.1646150097936894,-0.0477583026495392},
	{0.09936729264840935,0.13726721254436403,-0.09569060502466394,-0.07212457329340262,0.010751517089114026,-0.08433914736629579,-0.01637198808878219,-0.10277164542807539,6.901160397093154e-05,-0.006097030025826481,-0.15221575828354242,0.055150157013549556,0.24887129010509185,0.016869287840007345,0.06389540019134372,-0.08097209295665347,-0.0007823455628566842,0.013282692181522117,-0.011657692476055383,-0.09933359404419309,0.026193097642289748,0.12074399420745086,-0.06892318011432116,0.19999070126767934,-0.0005160741989275962,-0.15911844432102001,0.1663778167573561,0.09648079229027427,0.04714257279016059,0.1652728631290543,0.14106872878158871,-0.11842004710281913,-0.16782432722297275,0.006990412794188185,-0.01475193052688243,-0.09810698972526563,-0.01173188174303726,-0.07711510986330404,-0.002558271465349818,0.06340329253465718,-0.017501416126836273,0.1278581547424369,0.06906247536019444,-0.031245996381879988,0.006513640362418811,0.019467840110039228,1.0632318410351021e-05,0.0036575863282147405,-0.013423928316326519,0.024556847761889072,0.1241367718432083,0.01752239156159203,-0.05918560597590298,-0.23545459675032454,0.06808972726419686,0.020773925984128732,0.25380844202142944,-0.028860649677506796,0.06261642320736495,-0.01989040662780536,-0.027197224967715997,-0.003580714081993903,-0.10315341070627013,-0.0757653281940353,-0.05772049880937321,0.02286917335967792,-0.08654107444101583,0.015402511798244147,0.12112788639733432,0.02359305464452635,0.314994463427402,0.034568793216072036,0.04749138135554621,0.18522961259112133,0.25943078559846106,-0.047071538017589745,0.008262605871911438,0.09501961742219664,0.1803765841359532,0.21152150624987523,-0.06239027079918756,0.17528713627731607,0.10197447896129348,-0.04065218066541334,-0.04689656010909065,0.05938182391506691,-0.10886086442964613,0.04234270661884718,0.09959112849103045,0.10412276032824565,0.07611446132639631,0.015222434490845246,-0.22557611335847086,0.038540229294292634,-0.1691786817898376,0.1889954401003315,0.1904071232043664,-0.27715978858855395,0.08390429477646041,-0.00042949915025807623},
	{0.19212846787625765,-0.17654916964746495,0.03128246945459517,0.356648488390624,0.08056910250079778,0.3322375258311508,0.004973663350973449,-0.06683863468993888,-0.00033505090672263777,-0.036649624822691504,0.1971684612224911,-0.08291796690290161,-0.13143208923405608,-0.004486352107748252,0.09873094987793286,0.163025154959737,-0.019203452287991283,0.0013056250814955594,0.13196378129213715,0.011809258331128135,-0.05891466676174371,-0.15016796954165362,-0.003377907352569283,0.009372481661447883,0.00193565758326479,0.20297349598141765,-0.07779177184225679,-0.034175688556695234,0.10889472460472527,-0.09309267367045321,0.19286178811762258,-0.04340570900777387,0.3095720431221647,0.29305803899675464,0.005096955142501179,0.36265202871954,-0.10284275712355231,0.10089691503793895,-0.0018229187265231532,-0.2795296153205319,0.0561043562216547,0.11516962308311852,-0.038859480816593205,0.030937373813806655,-0.0729996596326975,0.15784425746358846,-0.07131433962360272,0.06635394148741089,-0.0018030613459820667,-0.08420709046492438,0.1438892689355091,-0.0016821482474084592,0.07376629081221193,0.15342568223292666,0.018279985199792282,0.25427499292052097,-0.2875253719762395,0.30170414428495423,0.18278243177056763,-0.0643854665572588,0.2566185287938691,-0.22251456869948016,0.09123270061098214,-0.0165080068029059,-0.032260369250414145,-0.26696214374851196,0.018589913991484592,0.30276681941285605,-0.1342241128497431,0.16507810208133208,-0.25434044865114347,-0.0003588080045549243,-0.07424942768527318,-0.24909601651684107,-0.0421726087468619,-0.048299708645603616,-0.031460870973620346,-0.012813525600370601,0.04012478084387987,-0.12753324750359216,-0.06444395451713147,-0.009328826268396907,0.13957195333827968,0.010622801144747535,-0.05081210992415422,0.11112117128551408,0.0684638102229539,-8.870836203250561e-05,0.12014376093604989,-0.08352504174309743,1.647852111499181e-05,-0.009613308609282863,0.09986411963671672,-0.021704730863923525,0.17010482272670577,0.15323261503950505,0.17183617113598446,0.20462652703962114,0.17249170530295566,0.04048743192085932},
	{0.1702540807119367,-0.33279337988595825,-0.039105610144959835,0.04705259303904801,-0.19535522616093146,0.13262144036257134,0.06503116480359641,-0.054952417626368696,0.01995334188227371,0.08547215388340677,0.18321414755056248,-0.08145121509132644,-0.15141378966648492,0.06734517252684469,-0.15347144393317383,0.3561701826024966,-0.04439138483718043,-0.01966171389855332,-0.08522603912637315,0.06865854055445125,0.023976319852127757,-0.1277192207528831,-0.004888916236593101,0.11499513416602553,-0.06439889212138677,0.18421367704587951,-0.10023554086983076,0.2451626365802079,0.044002636660521344,-0.22678168877199784,-0.072893509391755,0.2392791756387567,0.12723212787331942,0.2248626368970877,-0.053109103648613626,0.19012346190340476,0.0853337659171705,-0.08444742706506783,-0.058262169241326274,-0.27199325380592093,0.04460412818958414,-0.26707575429119496,0.08801497207712422,0.10555126343018532,-0.006324040311777958,0.08816684664808058,0.011280377548989013,-0.09987706291272859,0.03640693434046171,-0.0008780426430294085,0.28680210032479875,0.06749046388228601,0.3726114249268043,0.15877041231017938,0.13625760835680786,0.11186285342218144,0.06399601691207883,0.09066833034802566,-0.19631933148265357,0.03573216484955741,0.19421008568050835,-0.07062043200469584,-0.03153377459168835,0.06887772771371126,0.10538197780596198,0.05465324024185872,0.057330092567358895,0.11299556336956575,-0.2261791111405833,0.22031896414211863,-0.17427891179539906,-0.006430389183716127,-0.22714342366368434,-0.1810779988625055,0.10158986309402983,-0.3270356749796267,-0.06051530806046391,0.2849805566516765,0.2808777859857065,-0.15187805142698996,-0.13423429983893725,0.13138162521517574,-0.09923700069727154,-0.06167848852890919,0.08339093508151627,-0.034885838651955804,-0.09496779710982996,0.013666295240646211,0.06247643419958608,0.12884648392899747,0.00027790129654737086,-0.09818821440505694,-0.1921259023251138,-0.099088058545434,-0.20209970759444731,0.19018223022398068,-0.08871569075348633,0.26998590201719447,0.1382618724425227,0.00013717254212565775}
};

double MLPCIris_layer_0_bias[100] = {
    0.0639957402206004,0.06693519740623421,-0.11343866601485791,-0.13691709687490064,-0.16641369298058248,0.26428183460752686,0.1393867517558047,-0.11735847136656688,0.018592000300831718,-0.21356798648160863,-0.11273533796484671,-0.18512894571513233,0.13842471387586155,0.05037373323190661,0.07308260281148682,0.16918508633791435,0.021844560022398735,-0.1838339009810723,-0.16000282646767386,-0.19154545750191537,-0.013009453163801869,-0.029993488835757587,-0.03362122705866685,-0.056178899019918044,-0.15513938324695714,-0.11230337470059558,0.0670159404834254,0.14387941553753358,-0.24635012822576327,-0.03313071745519189,-0.1856560049167386,-0.0681291451421071,-0.0692351928231376,-0.1486040084036515,-0.01525438529526324,0.08597411439717706,0.021730700416367515,-0.16769801946944365,-0.12173694285022343,0.2537176324967904,0.10598400000726452,0.2785694234331234,-0.07076655834034556,0.012463504483746585,0.15051682424094195,-0.09946258916531844,0.2278831264877004,0.1659665369081299,-0.08559781491931387,0.06436617428374766,-0.0963746635478828,-0.1004907189851478,-0.07742414277893667,-0.2068219676488268,0.18614671835071928,0.08290182540661435,0.00864429864670628,0.14052729105054856,0.06398497106624287,-0.16780854452327892,-0.08109008281126527,-0.03698692785492633,-0.0933331941435683,-0.2371011350973989,0.044194474451392046,0.15716408439579155,-0.23964047787228637,0.13446121040544864,-0.0436738072476158,-0.14403205239726877,0.0008076144096222144,-0.09406067951444397,0.10639106237901665,-0.1831878456573302,-0.16560618523862464,0.04610935663518788,0.07205047013750995,-0.24543817889789155,-0.09742796406923604,-0.13654483092210148,0.02002607781030431,0.14466855699612902,-0.17088126442067486,0.07348123077420102,-0.0008703896706580561,0.14567041471383188,0.02494868158509955,-0.1740371147905017,0.2309006187020996,-0.0028366746842844928,0.18659744988639468,-0.0843772430990414,-0.18234109381629118,0.004426655864152362,-0.20337534201145113,0.14332055362251808,0.23789370664650314,0.05002008924177058,0.11713587052475855,0.01885532142500182
};

double MLPCIris_layer_0_neurons[100];

mlp_hidden_layer_t MLPCIris_layer_0 = {
    .weights = MLPCIris_layer_0_weights,
    .n_neurons = 100,
    .bias = MLPCIris_layer_0_bias,
    .neurons = MLPCIris_layer_0_neurons,
    .activation = ACTIVATION_RELU
};


double MLPCIris_layer_1_weights[100][3] = {
    {-0.14257835974451888,0.1814882238972169,0.10573609756143447},
	{0.28485960858407744,-0.2610306750205911,-0.12932900662925806},
	{0.009850543002461416,0.0006929828115114078,-0.013866047968014805},
	{-0.27956311413438056,-0.14328746691577482,-0.03611963977540582},
	{0.05825468765859065,0.0077135182720953705,-0.2592245105975307},
	{-0.4171665242113264,0.07253106402121472,0.28728013534369584},
	{-0.023818253465719506,-0.09274927636301415,-0.06525622420846205},
	{-0.10659615203254864,-0.04743621374194625,0.02572664798242239},
	{0.052149933072489864,0.011288843918559253,0.011958501797211151},
	{-0.053020401721103276,0.0695428479434837,-0.06922222651186494},
	{0.016846294246175512,-0.22541858980293156,0.2201699123673899},
	{0.018562538911656205,0.06301937761927376,-0.02060879590207444},
	{0.327470477183843,-0.22409794590194979,-0.0703419693215429},
	{-0.061430218918849686,-0.013090079629154738,0.08782838656319343},
	{-0.033537441556594785,0.040204709278129455,0.07593897794338011},
	{-0.3143338089955105,0.08081214629368881,0.24200280340494568},
	{5.279894599158931e-05,-0.00018337512764625755,0.08630594907860711},
	{0.07239378008248268,-0.010188101186248534,-0.026617096676569547},
	{-0.09037034631672018,0.22849691435601144,0.1383976574017458},
	{-0.16643151581362328,0.164970076225087,0.053032115570970616},
	{-0.13886787637670586,-0.10468770977456782,-0.044628652443575265},
	{0.27490403700822036,0.12871194050586324,-0.18846571955730093},
	{-0.002880049784336724,0.007850452449328681,-0.03211251971009544},
	{0.133991425261275,0.17438068001214907,-0.26032167336251616},
	{-0.0037463027948734565,-0.06747019739734794,0.004666597665287819},
	{-0.13239197009381018,-0.018396444799089078,-0.13611181588199334},
	{-0.008050239119706974,0.013067060014800623,-0.014857338948403659},
	{0.11668650961478266,0.07206015411325113,0.159018074200621},
	{-0.04001427271528754,-0.04194969084532895,0.17554956457832754},
	{-0.04332673568309214,-0.2512307202204199,0.15027158864097412},
	{0.04864799063299627,0.11977015503992017,0.10015211724136318},
	{-0.10777104226859337,-0.12420431046953002,0.17417580927294687},
	{-0.19614060659660507,0.01643727992922328,-0.0134316173840731},
	{-0.2738411597766671,0.11125723734419209,0.3041353100554577},
	{0.040031462637220336,-0.036518477138267,0.046532601786680165},
	{-0.33597924529361045,0.024583262554883988,0.06559487654664542},
	{0.0009875829040176488,0.0006618019875095135,0.00044499664082709914},
	{-0.16628745533628284,-0.10868759145717478,0.11889544142715433},
	{0.037116176710433976,-0.032850561512650804,0.026778301508509742},
	{0.26925041125128946,-0.42930914497706363,-0.0405879413263154},
	{0.021608665270730677,0.06939724332496883,0.19226418546571428},
	{0.15146423361567019,-0.025403662215187577,-0.1962878493127748},
	{-0.1336290727259808,0.1614767659087304,-0.2245560972496236},
	{-0.04241859235728316,0.06342914776292302,0.0015654404971810832},
	{0.021388636419376182,0.03482274050169512,-0.017869029928295106},
	{0.19678245756405235,0.04551315556287653,0.09946557182354271},
	{-0.10625401303182591,0.015484411548680308,-0.036435074274193756},
	{-0.0986821411422321,-0.12363020611425452,0.10417938834061495},
	{-0.0037448517708397228,0.0018307322721123757,0.0003423346195367311},
	{-0.008220839061684821,-0.06643040852678084,-7.780707165822252e-06},
	{0.1400585508042706,-0.12524127683248307,0.21153374564270813},
	{0.09637391728818283,0.05735351457284749,-0.013235251720858966},
	{-0.15793211388240053,-0.25944850669595876,0.3517448985599861},
	{-0.2751867208572361,-0.0008021316156133117,0.0825765608150977},
	{0.26583846283372137,-0.013269397969899208,0.09312011291656402},
	{-0.08957625438205226,0.05986170572752919,0.20449858014472255},
	{0.23225913705706863,0.13050681709184414,-0.015283862792518688},
	{-0.04618296663327285,0.051246714343038895,0.26907556074984157},
	{0.1596678896598418,0.22051155993149762,-0.06158834426238098},
	{0.012951354677414833,-0.0028506592669449503,0.0032152520528606204},
	{-0.25810664064181393,0.17528439357662368,-0.11460343109254105},
	{-0.19694259359543084,0.034316760128786955,0.17958853291934587},
	{-0.0023736336436430295,0.04793612879511929,0.00888157590489436},
	{0.03790016112201991,-0.0001433021225581942,-0.0022651673942876913},
	{0.0013478983544901975,-0.05741973566592122,0.09912980651025932},
	{0.2594502888471815,-0.05807026576135276,-0.3012872554087953},
	{0.002284118385833075,0.10162611379234629,0.002297890334527556},
	{0.059630769414207724,0.16305255676161307,0.28815257782769516},
	{-0.13140230027024902,0.19502780560284255,0.0031811772840154824},
	{-0.20839764583345663,-0.12590745692490937,-0.06821137196975585},
	{0.18442545637526112,0.047032443558614884,-0.251746241793581},
	{-0.009546321147923082,0.0011283641134432944,-0.10032686261880122},
	{-0.10053613421344805,0.20901168152353133,-0.11031447401646727},
	{-0.08025306969266874,-0.22732493634413342,0.11152840463252417},
	{0.20305072054708492,-0.20699191273704132,-0.017554611899449086},
	{0.1475187016740787,0.37320653078320265,-0.21070675353033086},
	{-0.09387777134928404,0.006042223352375642,0.0871763709200296},
	{-0.07594909641214063,-0.17400469248284087,0.11285880383470671},
	{0.034190778750829175,0.032009354922741665,0.15861883756796585},
	{0.07074875739299591,-0.16178689370123864,0.07287255225499147},
	{-0.1432198882448189,-0.015759160241607093,0.1209556783267214},
	{-0.13288871426309587,0.06853084651555945,0.11883827421002843},
	{0.006189560477870728,-0.13761437415767225,0.06528376427322495},
	{0.09600116856597984,-0.0230395284744518,-0.09461033913972888},
	{0.06670630851609118,0.07663385254713742,-0.10436490560995905},
	{0.005262922688355827,-0.19920526711803033,0.0019589235186507343},
	{-0.09849536535075464,-0.08970135236970703,-0.10703272187157085},
	{-0.03556856960184873,-0.08850725338038952,-0.05887105470441396},
	{0.03058625136687628,0.20190046580461396,-0.17330422189484418},
	{0.2966422150230295,0.1564661429035615,-0.16055444441935338},
	{-0.07458022854927464,0.014733780362768907,-0.10910566888141919},
	{0.052224173617605875,0.053063921629717,0.0758039120653934},
	{0.08588431360345543,0.08849099210061016,0.008849282933465026},
	{-0.08514829180883389,0.0005537605202334386,0.07585404941070849},
	{0.18860807128491194,-0.04744951502241324,-0.10970902916488946},
	{-0.07931442606850497,-0.17660671285092513,0.04853552235213784},
	{0.24988184126995097,0.07389820311685509,0.1474495253376265},
	{-0.2763778921677754,0.20635321670643492,0.30889905444910876},
	{0.21276208835965577,0.06167651653717826,-0.19606117488910166},
	{-0.0862805887458485,0.09567342846819382,-0.03649703176276385}
};

double MLPCIris_layer_1_bias[3] = {
    0.2558225543371587,0.28362628423750574,-0.18703795343516752
};

double MLPCIris_layer_1_neurons[3];

mlp_hidden_layer_t MLPCIris_layer_1 = {
    .weights = MLPCIris_layer_1_weights,
    .n_neurons = 3,
    .bias = MLPCIris_layer_1_bias,
    .neurons = MLPCIris_layer_1_neurons,
    .activation = ACTIVATION_IDENTITY
};


feature_type MLPCIris_sample[4];
mlp_hidden_layer_t *MLPCIris_layers[2] = {&MLPCIris_layer_0,&MLPCIris_layer_1};

mlpc_model_t MLPCIris = {
    .n_features = 4,
    .n_classes = 3,
    .n_layers = 2,
    .sample = MLPCIris_sample,
    .hidden_layers = MLPCIris_layers
};

